     -1.0031327865
     -0.2874309874
     -0.6406596226
     -0.4204691238
      0.8771352090
      0.8918022622
     -0.3304539543
      0.0514253888
      0.1606572403
     -0.3974990584
      0.7297190060
      0.5974770641
      0.2642367845
      0.2202668547
      0.9676003671
      0.0204247151
      0.2034699349
      0.1515579486
      0.2026778517
      0.7305733365
     -0.3625715921
     -0.9980067249
      1.3081351461
      0.8755850472
      0.4603141895
     -0.0040801060
      0.4049719763
      0.4071383664
     -0.2014236564
     -0.5625495337
      0.0874792052
      0.8914781109
     -0.6818269069
      0.6628948741
      0.3353680162
      0.6757114115
     -0.5337671411
     -1.0606619411
     -0.2077826778
      0.4797553130
     -0.5182441116
      0.2908185423
      0.4626476258
      0.9838024605
      0.1405188823
      0.2975611314
      0.7988734221
      0.1509212015
      2.6755885128
      0.5540191070
      0.8906670468
      1.1459301651
     -1.4382677874
     -0.6939063935
     -0.2205635857
     -0.4233784802
     -0.0504274892
      0.0002412834
     -0.3254926437
     -0.1040653812
     -1.7637288515
     -2.4642550308
      0.3807202263
     -3.5251516234
     -0.9220611618
     -0.8805693326
     -0.7457311964
      2.4841125744
     -0.5322643128
     -0.9304301127
     -0.8072844276
      0.1903583310
     -0.6932870456
      0.2459093599
      0.4228955596
      1.0734655650
      0.7535391336
      0.2276932529
      0.3060547249
     -0.3814501659
      0.0697694234
     -0.8532323745
     -0.1300345030
     -0.4869004405
     -0.0081930673
      1.1819700524
      0.1727149446
      0.8311995482
      0.7815728881
      0.6569102885
     -0.9729799382
     -0.9683945011
      0.2371978954
     -0.4782528914
     -0.8924488916
      0.3938834830
     -0.7919214367
      0.3568612474
      0.4366813366
     -0.4231008738
     -0.4115524805
     -0.6199391194
      0.8309288977
     -1.1060224549
     -0.4747813116
      0.4263649964
     -0.4454138112
     -0.2278964193
     -1.3290374295
     -0.5856648855
      0.3169423504
      0.1320775446
      0.2961888048
     -1.0599416263
      0.3089555057
      0.0787109657
     -0.1203809363
      0.0294455882
     -0.6556777254
      0.0907394937
      0.4834068309
     -0.4400154719
     -0.5652036538
     -0.0080169174
      0.7223178809
      0.4889851958
      0.2901656695
     -0.3694654887
     -0.3625463786
     -0.6801513579
      0.6344383271
      0.3530958077
      0.8641156924
      0.3765461436
     -0.5094064378
     -0.2614789509
      0.3068108277
      0.4809790380
      1.1006703752
      0.0609582676
     -1.0299286611
      0.5742367791
     -0.2220337950
      0.5399080475
      0.7084393567
      0.8075875225
     -0.7999936914
     -0.5177661435
     -0.1151962264
      0.4166084250
      1.2124910533
      0.6472859777
     -0.6377036058
      1.5527542055
     -0.7189880279
      0.8790914169
      0.2748038534
     -0.6545752990
      0.1276105129
      0.1869502883
     -0.5691760898
     -0.1230237660
     -0.1684790417
      0.7020841525
     -0.6243879923
      0.6554574638
      0.3324622074
     -0.2888504812
     -0.2006614052
      0.6194690587
     -0.2424237429
      0.4196375384
     -0.8002161011
      0.5823076374
     -0.5618877720
      0.1947989444
      0.2804985554
      0.7408624790
     -0.5322686201
     -0.3806929532
     -0.1453912673
     -0.2098304546
     -0.8122885279
     -0.5386120743
      0.5508458685
      0.2320189487
     -0.0092566847
     -0.5648601744
     -0.3085277165
      0.1860157343
     -0.1888269761
      0.4778352356
      0.5767709069
      0.3562499966
     -0.9452848083
      0.5265656110
     -0.5578102388
     -0.4687732042
     -0.2962369197
     -0.8807731178
     -0.0078370424
     -0.7484215544
     -0.6770427408
      0.5085702147
     -0.1425937297
     -1.5042655856
     -0.7315995057
      0.1215054397
      0.4393976532
     -0.1995396654
     -0.4310603060
      1.1767548612
     -0.7935835713
      0.0244849731
     -0.1527908696
     -0.3685500489
      0.0083033537
      0.1200311298
     -0.6292924840
     -0.0889619794
      0.2549577578
     -0.3580747368
      0.5421840019
      0.3524130522
     -0.7603923428
      0.7046059751
      0.8976826919
      0.5568840176
      0.9922288506
      0.4959378247
     -0.4334483171
      1.1663647567
      0.1441266981
     -0.6128545732
      0.9523941828
     -0.4718429307
      0.4180026454
      0.1087664670
     -0.9486681794
      0.1341443087
     -0.4944118387
     -1.2477202162
     -0.7750425629
     -0.0296547432
      0.2874097494
     -0.2748776476
      0.8208278637
     -0.1573026827
     -0.8144640749
      0.6960740904
     -1.1091748935
     -0.3773609576
     -0.2017591997
     -0.9735359763
     -0.2652290705
     -0.0506576645
      0.7274488059
      0.3459138091
      1.1283720829
     -1.2451118978
      0.4705507074
      0.1685717522
      0.7363585797
      1.0142491799
      0.5153869893
      0.9976552309
      0.4699792947
      0.1974843156
      0.8363369522
     -0.2352783675
      0.0769668510
     -0.2044617539
     -0.1703003044
      0.4822078740
     -0.2377272907
      0.3522336430
      0.9285481767
     -0.5589269007
      0.9839807765
     -0.0667065716
     -0.6101644218
      0.2138267676
     -1.0235247750
      0.5075307862
      0.8971720876
     -0.5734157559
     -0.8749025775
     -0.8357090325
     -2.0307799143
      0.5856188998
     -0.6320454470
     -0.4028282981
      0.3815392885
      0.6110186460
     -1.6962345567
     -0.3554170356
      0.6648850594
     -0.3382822384
      0.6061889543
     -0.9972072676
      0.5886366760
      0.5349914146
      0.7999967330
     -0.5512091353
     -0.6860403445
      0.5084869744
     -0.0553081876
      0.2161027564
     -0.6564172001
     -0.3518843041
      0.1213595722
     -0.9912668220
     -0.2159999806
      0.8589346938
     -1.0121124614
     -0.7346616860
     -0.0393644019
      0.8275061784
      0.1427103638
      0.1871618630
     -0.1042601296
      0.0699702281
      1.3843784805
     -0.5479336100
      0.6667807379
      1.1222242885
      0.1653058150
      0.8600980485
      0.8193532559
     -0.1561444039
      1.3538575745
      0.2823430010
      0.4053594998
      1.5276729807
      0.5299922198
     -0.0443991419
     -0.0878088830
     -0.2453667321
      0.7335439486
      0.4971644655
     -0.7896227512
     -0.4821153756
     -0.0558223913
     -0.7279428718
     -0.0452222088
      1.6925651468
      1.4661150840
      0.1166185383
      1.4584451795
     -0.0678239903
      0.4606565693
     -0.1536049947
     -0.7905243587
     -0.5393079090
     -0.3577601246
      1.3473970755
      0.4429934632
     -0.7944717582
      0.0181451475
     -0.7138294030
     -0.1741110016
     -1.0954501574
     -0.8975365389
      0.1449496363
      0.9690614992
     -0.8547861861
     -0.4447945100
      0.8394633736
     -1.2362962713
      0.2646927749
      0.2285319683
     -0.1375527334
      0.1856881446
      0.1132453367
      0.1903897884
      0.4949487244
      0.5518724367
      0.5883238753
      0.2772671795
      0.5084116024
     -0.4883693222
      0.5869900715
     -0.0315802496
     -0.8388530604
      0.3906425287
     -0.0801793820
     -0.7129954558
      0.6961010387
      0.7552900611
      0.8980518403
     -1.1490669164
     -0.0558109307
      0.7481464522
     -0.8680113667
      0.6302666425
      0.6009311414
      0.2544136339
      0.2851610479
     -0.2439588904
      0.8815749079
     -0.5982975793
      0.5936826686
     -0.8513452976
      0.4947938822
     -0.5179347608
     -0.8849747184
     -2.0002312294
     -0.8043456434
     -3.5144293869
      0.2401528129
     -0.1575542367
     -0.5212554749
      0.6710819647
      0.3826521986
     -1.0829373627
     -1.0264772064
      0.1277621119
      0.3866067237
      0.5828373697
      0.3795073776
     -0.2980138989
      0.0283602460
     -0.3276416948
      0.0436521977
     -0.0526376171
      0.0236346382
     -0.0684155732
     -0.2124734243
      0.5761199465
      0.1996785960
     -0.4151137307
     -0.6080164431
     -0.7951735059
     -0.8785553682
      0.1571575483
     -0.5090665182
      1.1656818006
     -0.4922258281
      1.3137980988
      0.7150827243
     -0.4171578126
      0.7068855876
     -1.6859018487
     -0.4242537746
     -0.0023212157
      0.8173838839
     -1.0188032571
      0.3189766224
      0.2194865551
      0.6351852709
      0.0724004081
     -0.3268658016
     -0.3984945247
     -0.0558966985
     -0.1246565520
     -0.1770847376
      0.1456386404
      0.5066355816
     -0.8053662733
      1.0987033735
     -0.2393213522
      0.3966703642
      1.1093647108
      0.5321940416
      0.1733834407
      1.5159871765
     -0.5707089479
      0.4322377977
      0.1082555907
     -0.3627490721
     -0.8521297240
      0.2909144604
      0.2030267499
      0.8755488028
      0.9333086769
      0.1437246371
     -0.9519233107
      0.0797958249
     -0.1894204451
     -1.7367825818
     -1.4139690827
     -1.0338979081
     -0.9745998278
      0.7091538630
     -0.9893825116
     -0.5568816414
     -0.2962856548
     -0.6531983299
     -0.0238994989
     -0.3932499423
     -0.3603510471
     -0.0798765951
     -1.0929929792
      0.5911054573
     -0.5600806098
      0.3218860998
      0.4720259974
     -0.5015992582
     -0.8246126727
     -0.0253834190
     -0.8332747096
     -0.6029885728
     -0.4113005295
     -0.7716415481
      0.1759739544
     -0.5766860197
     -0.1886891124
      0.4601572508
      0.0352058011
     -0.2594404629
     -1.1084620807
     -0.5017421254
     -0.6837660624
     -0.2648362435
      0.4506671992
     -0.4746448718
     -1.4927276234
      0.5305289892
     -0.5946518587
      1.3704189657
     -0.7888756428
      0.8076813864
      0.0306901844
      0.2563612213
     -0.1733382548
      0.0537184131
     -0.4672011494
     -0.8238708208
      0.1553771990
      0.0708647845
      0.8179202116
     -0.0241687309
     -1.0999512486
      0.6685804687
     -0.4307239588
     -0.1175118162
     -0.2054780374
     -0.4096408009
     -0.4070615139
      0.4273855436
      0.3621359135
      0.0830903339
      0.1750345228
      0.8908732350
      0.6406031188
      0.5752697623
     -0.7323729030
     -0.7389283526
      0.6640339257
     -0.3998396627
     -0.4380641015
     -0.8293881833
     -0.5782322193
     -0.9340421202
     -0.3459495427
     -0.4331580466
     -0.2180615336
     -0.3787698357
     -0.2901646548
      0.1558372852
     -0.1260311496
      0.4725191898
      0.0881420961
     -0.9410737174
      0.6248713698
      0.2177967917
     -0.0051200981
     -0.0890160863
      0.9173137756
     -0.3349725510
      0.6628625496
      0.9663575317
     -0.2690102012
      0.8452169623
      0.9896477476
      0.1120570586
      1.1019196271
     -0.8895139620
      0.3722980369
     -0.3705759142
     -0.1096778284
     -0.4138349608
     -0.5387052772
      0.5986910022
     -0.1975974354
      0.3293659249
     -0.7683417071
     -0.7943241925
      0.0128196478
     -0.3266965244
      0.5858162716
     -0.3315651035
     -0.3363205966
     -0.9810218995
     -0.2920420336
      0.5716624403
     -0.8391161251
     -0.9007534478
      0.0095253168
     -0.4229855591
     -0.1989121042
     -0.9784377364
     -0.9496411110
      0.9541887960
     -0.1659857344
      0.8327461541
     -0.0216657767
     -0.5854755554
      0.6209521252
      0.0097132915
     -0.8267646350
      0.3550522128
     -0.7744128269
     -0.5851208554
      1.2579041534
     -0.0619032101
      0.6270096598
      1.0106383070
      0.5987584358
      0.1584208868
      1.1051242032
     -0.3073972834
     -0.0713223598
      0.1831403850
     -0.6611998968
     -0.6304053428
      1.0107168009
     -0.6607902955
     -0.4458656939
     -1.2388849018
      1.0908860286
     -0.5180190988
     -0.2113834307
     -0.1269421415
     -1.2183046045
      0.0353343702
     -0.4488872224
     -0.4299807748
      1.0429522069
     -0.1248005474
      0.6518379327
      0.5095795019
     -1.0007568172
     -0.7355082101
     -0.0460109647
     -0.0947442228
      0.3262787550
      0.6732217207
      0.1963234042
     -0.8044133629
      1.0540680087
     -0.4999409531
      0.9892833457
     -0.9149162683
     -0.7841122764
     -0.8900062527
      0.5082574707
      0.3657544557
      1.1003138800
     -0.1480101500
      0.3763743802
     -0.3703172880
      0.5807823413
      0.9223966851
      0.4317994848
     -1.0878161483
      0.8343671649
     -0.4400620207
      0.5759954595
     -0.4868818973
     -0.2746030235
     -0.8366899293
      0.3992731130
      0.5974960979
     -0.8563861916
      0.5350164614
     -0.1406842613
      0.3131162651
     -0.7828443116
      0.2306786249
     -0.9301317675
     -0.1179728281
      0.7735623167
      0.1705096577
      0.8733449966
      0.0828685147
     -0.6883249064
      0.8241402842
      0.8861445449
      0.8936636122
      0.5207613121
      0.5451254500
     -0.4246840804
      0.8024388648
      1.0437789485
      0.5958017817
      0.7780692153
      0.4567023503
     -0.8122899087
     -0.8065885752
     -0.1268828266
      0.2672854733
     -0.7594840918
      0.6166175475
      0.6603112056
     -0.0034607207
     -0.0297588634
      0.0030734599
      0.2042264042
      0.0171990142
     -0.0482154052
     -0.2443818993
      0.0103405346
     -0.0090418409
     -0.0276785078
     -0.0968843694
      0.0024428985
     -0.0093165719
      0.0061381063
     -0.0130976577
     -0.3778268755
